network agent_assistive_model {
}

%VARIABLES DEFINITION

variable agent_assistance {
  type discrete [ 6 ] { lev_0, lev_1, lev_2, lev_3, lev_4, lev_5};
}
variable attempt {
  type discrete [ 4 ] { att_1, att_2, att_3, att_4 };
}
variable game_state {
  type discrete [ 3 ] { beg, mid, end };
}


%INDIVIDUAL PROBABILITIES DEFINITION
probability ( agent_assistance ) {
  table 0.17, 0.17, 0.17, 0.17, 0.16, 0.16;
}
probability ( game_state ) {
  table 0.34, 0.33, 0.33;
}
probability ( attempt ) {
  table 0.25, 0.25, 0.25, 0.25;
}
probability (agent_assistance | game_state, attempt) { 
(beg, att_1)	0.2777777777777778, 0.2222222222222222, 0.16666666666666666, 0.16666666666666666, 0.1111111111111111, 0.05555555555555555; 
(beg, att_2)	0.25, 0.2, 0.15, 0.15, 0.15, 0.1; 
(beg, att_3)	0.22727272727272727, 0.18181818181818182, 0.18181818181818182, 0.18181818181818182, 0.13636363636363635, 0.09090909090909091; 
(beg, att_4)	0.19230769230769232, 0.19230769230769232, 0.15384615384615385, 0.15384615384615385, 0.15384615384615385, 0.15384615384615385; 
(mid, att_1)	0.2777777777777778, 0.2222222222222222, 0.16666666666666666, 0.16666666666666666, 0.1111111111111111, 0.05555555555555555; 
(mid, att_2)	0.25, 0.2, 0.15, 0.15, 0.15, 0.1; 
(mid, att_3)	0.22727272727272727, 0.18181818181818182, 0.18181818181818182, 0.18181818181818182, 0.13636363636363635, 0.09090909090909091; 
(mid, att_4)	0.19230769230769232, 0.19230769230769232, 0.15384615384615385, 0.15384615384615385, 0.15384615384615385, 0.15384615384615385; 
(end, att_1)	0.2777777777777778, 0.2222222222222222, 0.16666666666666666, 0.16666666666666666, 0.1111111111111111, 0.05555555555555555; 
(end, att_2)	0.25, 0.2, 0.15, 0.15, 0.15, 0.1; 
(end, att_3)	0.22727272727272727, 0.18181818181818182, 0.18181818181818182, 0.18181818181818182, 0.13636363636363635, 0.09090909090909091; 
(end, att_4)	0.19230769230769232, 0.19230769230769232, 0.15384615384615385, 0.15384615384615385, 0.15384615384615385, 0.15384615384615385; 
}