network agent_assistive_model {
}

%VARIABLES DEFINITION

variable agent_assistance {
  type discrete [ 6 ] { lev_0, lev_1, lev_2, lev_3, lev_4, lev_5};
}
variable attempt {
  type discrete [ 4 ] { att_1, att_2, att_3, att_4 };
}
variable game_state {
  type discrete [ 3 ] { beg, mid, end };
}


%INDIVIDUAL PROBABILITIES DEFINITION
probability ( agent_assistance ) {
  table 0.17, 0.17, 0.17, 0.17, 0.16, 0.16;
}
probability ( game_state ) {
  table 0.34, 0.33, 0.33;
}
probability ( attempt ) {
  table 0.25, 0.25, 0.25, 0.25;
}
probability (agent_assistance | game_state, attempt) { 
(beg, att_1)	0.09090909090909091, 0.18181818181818182, 0.18181818181818182, 0.18181818181818182, 0.18181818181818182, 0.18181818181818182; 
(beg, att_2)	0.13043478260869565, 0.17391304347826086, 0.17391304347826086, 0.17391304347826086, 0.17391304347826086, 0.17391304347826086; 
(beg, att_3)	0.09090909090909091, 0.18181818181818182, 0.18181818181818182, 0.18181818181818182, 0.18181818181818182, 0.18181818181818182; 
(beg, att_4)	0.09090909090909091, 0.18181818181818182, 0.18181818181818182, 0.18181818181818182, 0.18181818181818182, 0.18181818181818182; 
(mid, att_1)	0.09090909090909091, 0.18181818181818182, 0.18181818181818182, 0.18181818181818182, 0.18181818181818182, 0.18181818181818182; 
(mid, att_2)	0.13043478260869565, 0.17391304347826086, 0.17391304347826086, 0.17391304347826086, 0.17391304347826086, 0.17391304347826086; 
(mid, att_3)	0.09090909090909091, 0.18181818181818182, 0.18181818181818182, 0.18181818181818182, 0.18181818181818182, 0.18181818181818182; 
(mid, att_4)	0.09090909090909091, 0.18181818181818182, 0.18181818181818182, 0.18181818181818182, 0.18181818181818182, 0.18181818181818182; 
(end, att_1)	0.09090909090909091, 0.18181818181818182, 0.18181818181818182, 0.18181818181818182, 0.18181818181818182, 0.18181818181818182; 
(end, att_2)	0.13043478260869565, 0.17391304347826086, 0.17391304347826086, 0.17391304347826086, 0.17391304347826086, 0.17391304347826086; 
(end, att_3)	0.09090909090909091, 0.18181818181818182, 0.18181818181818182, 0.18181818181818182, 0.18181818181818182, 0.18181818181818182; 
(end, att_4)	0.09090909090909091, 0.18181818181818182, 0.18181818181818182, 0.18181818181818182, 0.18181818181818182, 0.18181818181818182; 
}