network agent_assistive_model {
}

%VARIABLES DEFINITION

variable agent_assistance {
  type discrete [ 6 ] { lev_0, lev_1, lev_2, lev_3, lev_4, lev_5};
}
variable attempt {
  type discrete [ 4 ] { att_1, att_2, att_3, att_4 };
}
variable game_state {
  type discrete [ 3 ] { beg, mid, end };
}


%INDIVIDUAL PROBABILITIES DEFINITION
probability ( agent_assistance ) {
  table 0.17, 0.17, 0.17, 0.17, 0.16, 0.16;
}
probability ( game_state ) {
  table 0.34, 0.33, 0.33;
}
probability ( attempt ) {
  table 0.25, 0.25, 0.25, 0.25;
}
probability (agent_assistance | game_state, attempt) { 
(beg, att_1)	0.21739130434782608, 0.21739130434782608, 0.21739130434782608, 0.17391304347826086, 0.08695652173913043, 0.08695652173913043; 
(beg, att_2)	0.2631578947368421, 0.2631578947368421, 0.21052631578947367, 0.10526315789473684, 0.10526315789473684, 0.05263157894736842; 
(beg, att_3)	0.2631578947368421, 0.2631578947368421, 0.15789473684210525, 0.15789473684210525, 0.10526315789473684, 0.05263157894736842; 
(beg, att_4)	0.2631578947368421, 0.2631578947368421, 0.15789473684210525, 0.15789473684210525, 0.10526315789473684, 0.05263157894736842; 
(mid, att_1)	0.21739130434782608, 0.21739130434782608, 0.21739130434782608, 0.17391304347826086, 0.08695652173913043, 0.08695652173913043; 
(mid, att_2)	0.2631578947368421, 0.2631578947368421, 0.21052631578947367, 0.10526315789473684, 0.10526315789473684, 0.05263157894736842; 
(mid, att_3)	0.2631578947368421, 0.2631578947368421, 0.15789473684210525, 0.15789473684210525, 0.10526315789473684, 0.05263157894736842; 
(mid, att_4)	0.2631578947368421, 0.2631578947368421, 0.15789473684210525, 0.15789473684210525, 0.10526315789473684, 0.05263157894736842; 
(end, att_1)	0.21739130434782608, 0.21739130434782608, 0.21739130434782608, 0.17391304347826086, 0.08695652173913043, 0.08695652173913043; 
(end, att_2)	0.2631578947368421, 0.2631578947368421, 0.21052631578947367, 0.10526315789473684, 0.10526315789473684, 0.05263157894736842; 
(end, att_3)	0.2631578947368421, 0.2631578947368421, 0.15789473684210525, 0.15789473684210525, 0.10526315789473684, 0.05263157894736842; 
(end, att_4)	0.2631578947368421, 0.2631578947368421, 0.15789473684210525, 0.15789473684210525, 0.10526315789473684, 0.05263157894736842; 
}