network agent_assistive_model {
}

%VARIABLES DEFINITION

variable agent_assistance {
  type discrete [ 6 ] { lev_0, lev_1, lev_2, lev_3, lev_4, lev_5};
}
variable attempt {
  type discrete [ 4 ] { att_1, att_2, att_3, att_4 };
}
variable game_state {
  type discrete [ 3 ] { beg, mid, end };
}


%INDIVIDUAL PROBABILITIES DEFINITION
probability ( agent_assistance ) {
  table 0.17, 0.17, 0.17, 0.17, 0.16, 0.16;
}
probability ( game_state ) {
  table 0.34, 0.33, 0.33;
}
probability ( attempt ) {
  table 0.25, 0.25, 0.25, 0.25;
}
probability (agent_assistance | game_state, attempt) { 
(beg, att_1)	0.35714285714285715, 0.21428571428571427, 0.14285714285714285, 0.14285714285714285, 0.07142857142857142, 0.07142857142857142; 
(beg, att_2)	0.35714285714285715, 0.21428571428571427, 0.14285714285714285, 0.14285714285714285, 0.07142857142857142, 0.07142857142857142; 
(beg, att_3)	0.23809523809523808, 0.19047619047619047, 0.14285714285714285, 0.14285714285714285, 0.14285714285714285, 0.14285714285714285; 
(beg, att_4)	0.2, 0.16, 0.16, 0.16, 0.16, 0.16; 
(mid, att_1)	0.35714285714285715, 0.21428571428571427, 0.14285714285714285, 0.14285714285714285, 0.07142857142857142, 0.07142857142857142; 
(mid, att_2)	0.35714285714285715, 0.21428571428571427, 0.14285714285714285, 0.14285714285714285, 0.07142857142857142, 0.07142857142857142; 
(mid, att_3)	0.23809523809523808, 0.19047619047619047, 0.14285714285714285, 0.14285714285714285, 0.14285714285714285, 0.14285714285714285; 
(mid, att_4)	0.2, 0.16, 0.16, 0.16, 0.16, 0.16; 
(end, att_1)	0.35714285714285715, 0.21428571428571427, 0.14285714285714285, 0.14285714285714285, 0.07142857142857142, 0.07142857142857142; 
(end, att_2)	0.35714285714285715, 0.21428571428571427, 0.14285714285714285, 0.14285714285714285, 0.07142857142857142, 0.07142857142857142; 
(end, att_3)	0.23809523809523808, 0.19047619047619047, 0.14285714285714285, 0.14285714285714285, 0.14285714285714285, 0.14285714285714285; 
(end, att_4)	0.2, 0.16, 0.16, 0.16, 0.16, 0.16; 
}